{
    "sizes": [
        784,
        128,
        64,
        10
    ],
    "num_layers": 4,
    "weights": [
        [
            [
                0.7882060541128595,
                0.21334978113026482,
                0.24871212015437677,
                -0.06225538648842495,
                -1.5147046606713486,
                0.0169714341222955,
                0.2717261002322577,
                -1.093827279059901,
                -0.9583737512853051,
                -0.694595973525459,
                0.4506201890217867,
                0.7257242115918513,
                0.23250678180893333,
                -2.407610615701592,
                -0.5558166635940991,
                0.974104761555596,
                -1.0853208288983596,
                0.5220095365713662,
                -0.13783239892340565,
                0.1290765418219713,
                0.7172585095569366,
                1.1250029119183733,
                -0.9106310347511277,
                -0.85790569556464,
                0.6550722242603619,
                1.964140001875422,
                -0.7085215976642295,
                0.3080401484692714,
                0.5109843553154128,
                -1.319277975875132,
                1.105514540107068,
                -2.211302867233806,
                -1.0369041844811886,
                -0.8703049024877448,
                0.7572748851769379,
                -1.6883247572012072,
                0.6260794093610548,
                -0.5571820567625041,
                1.2166423193312452,
                0.07288123855703092,
                -0.8229539952632704,
                0.20160050639081886,
                1.4328138997275242,
                0.08975177256774441,
                0.5908405868485571,
                0.7125793190815964,
                -0.5393557059063065,
                0.09584244113422141,
                0.5918595535445513,
                0.6019697531443999,
                -0.007442786285914017,
                1.5025142381534575,
                0.2783541645528035,
                0.8212938787891115,
                0.21113670183345368,
                1.372933286256903,
                -1.019209332401295,
                0.15137450699087418,
                0.09914591472410951,
                -0.3533531259870667,
                -0.6383454053435411,
                -1.8479991721424733,
                0.6684774318837282,
                0.6412140479333892,
                -2.164995935148877,
                -1.093350505936106,
                -0.019241390408601636,
                -1.1126649025591457,
                0.4842024970836342,
                -0.749178318310184,
                -0.30083884067753763,
                0.2228737955519041,
                1.0448602392313855,
                0.4329438597523677,
                -0.860100155536904,
                0.44954641014407287,
                -0.7496738547465234,
                -1.0912886992848503,
                0.6501263657811366,
                -0.5554604055330009,
                -1.4375157010211543,
                0.5606095314298464,
                0.24397443532079302,
                0.19934164766490006,
                -0.08641578194391042,
                0.1058488041555587,
                -0.5783227094277932,
                -0.5752470500123298,
                1.1459885275306858,
                -0.9741193783501787,
                -0.3419947346160801,
                0.8222677080096197,
                -0.7914981844248727,
                -1.1105814367718065,
                -0.6901238515897814,
                0.06868135020300804,
                0.7729573290263614,
                -0.32926172487939176,
                -1.5350934818842252,
                -0.03945020487966755,
                -0.4149453149241873,
                0.003706736547042421,
                0.8446537507016999,
                1.2831775765644864,
                -0.8081542717692153,
                0.847305570299116,
                0.8974107088055873,
                1.563411138430545,
                1.5398179247168229,
                -0.13038392576330307,
                0.7686001005503691,
                0.1720475502497309,
                -0.4116713267602028,
                -0.5304374437110967,
                -0.6503695789855151,
                2.810021570563231,
                0.4284913098196374,
                0.19492037174484358,
                0.26045023226168595,
                0.925673945308488,
                -1.6350709104840784,
                0.3844247061012184,
                -1.2098859720095696,
                -0.42470718153061504,
                -0.3306871525281781,
                -2.4928792302525222,
                0.06990348798942164,
                0.9623337137055848,
                0.16639169524224984,
                -1.5952022311852985,
                -1.0721597908570342,
                0.19294337082481797,
                0.8131844276510354,
                1.8518186444509976,
                -0.8914588511494248,
                1.4661496808179282,
                -0.4477380694271769,
                1.406051887936378,
                1.5531278103185722,
                -0.5647775270061943,
                -2.4704818615512227,
                0.6183648454306326,
                0.5448113589491658,
                0.6774589148621735,
                -0.013819316532160519,
                1.4434215406547688,
                -0.43661721682130894,
                -0.7715352518959495,
                -1.265991040998936,
                1.2001168865937535,
                0.6522715228262937,
                -0.5454022308647026,
                2.5363483487717917,
                -0.3187993104552725,
                0.4581343938163536,
                -0.6805637955974497,
                -1.9778041555884338,
                0.5990072570355687,
                0.26785531326975287,
                -0.9549637197817739,
                -0.49426840402444755,
                -0.8300120911847803,
                -1.0247044799488576,
                2.006043105883394,
                0.39980432826132856,
                -0.4616625828787967,
                -1.1139979614315036,
                0.38337951772381224,
                -0.0740351448682135,
                -1.3523263425135672,
                -0.6866737968592358,
                -0.01051689969805442,
                1.1611654646669778,
                1.204821061536954,
                -1.4842100605676394,
                -0.01211019848075025,
                -1.9030618721306625,
                -1.6656025090165094,
                0.9554485403773104,
                0.3941229741149363,
                0.7191857478462215,
                -0.2122917874659903,
                0.2529687790821802,
                -0.8578287955597143,
                0.5044934245398808,
                1.860459754362357,
                0.7335588896892066,
                1.5451576650536332,
                0.22370713401571077,
                -0.9729071843876479,
                -2.3404996359606542,
                2.364332772405731,
                -1.824412539541691,
                -0.2751209377198609,
                0.40228748272204706,
                -1.1313964969830632,
                -1.9666062710819179,
                -0.011375354746022656,
                1.1574533866720569,
                0.9786137880097183,
                0.38253069989272065,
                0.34422780605704995,
                1.185087145516044,
                -0.3573790648379178,
                1.4537162988860144,
                0.5071665384673045,
                0.7651155412096212,
                -1.1127052837647478,
                -0.5648869548715942,
                -2.8621835763658408,
                -1.5864844513158916,
                1.704254478216131,
                0.07093042195417455,
                0.27726635078325784,
                1.8587309003333816,
                0.9222077674715449,
                -0.2400646133642872,
                1.0906860119331465,
                0.8771712658028025,
                2.168810533788965,
                1.2419036210621017,
                -0.5975887061610199,
                0.1569682480102258,
                1.4330052051805133,
                0.6673253281918171,
                -1.088896541214904,
                0.14427673050310388,
                -0.6313913976512094,
                -1.8447583085529462,
                -0.547073213000196,
                -0.9321402342014888,
                0.24524611751794353,
                0.32112319630286257,
                -0.6532143790692014,
                -0.3673385451007288,
                0.9381302023879978,
                -0.2695112976453778,
                1.9575551030914589,
                0.6353791532452842,
                -1.2568365609122787,
                -0.08715863204352439,
                -0.7397630632626415,
                -0.26695500821529683,
                0.8899601385237388,
                0.6318959185709933,
                0.4392352665003282,
                -0.3176459909983052,
                1.3388884689854041,
                0.23793886823854732,
                1.0415364374681937,
                -0.16999427393116215,
                0.22515313455532604,
                -0.10772600247807665,
                0.6318879309647522,
                0.6629561863651109,
                0.6546266334656254,
                0.6037909774564382,
                -0.4093036564738883,
                -0.4066060991934792,
                0.6233687125311325,
                1.0910359923251554,
                0.7425937507590025,
                -1.9514574435316472,
                0.5376586340682673,
                -0.02062003112066727,
                0.40142164704855315,
                0.037439968862845785,
                1.0459457418022358,
                0.9280972209846403,
                0.8983420505943344,
                0.7900416536280737,
                1.1388360972068576,
                0.2712207006844775,
                0.3476593549051301,
                -1.271260480921617,
                -0.03380417521829189,
                -0.6127337598057137,
                -0.6420714708518258,
                0.39935800796806065,
                -0.30612306607552653,
                -0.1214278881678932,
                2.509173846480608,
                0.6668882654823152,
                0.6028425486681299,
                -0.5109476830742856,
                0.8594119336318724,
                -2.2588055496754715,
                0.11288260023863311,
                -2.327095528202127,
                1.0733425070816405,
                -0.024637239362619245,
                -1.0353548468653209,
                -0.4652152378748471,
                -0.4303989300613261,
                -1.3951984062987781,
                0.3730438738485857,
                0.25432760570523966,
                -0.3609731978095122,
                0.7930514707251857,
                0.38605370121521393,
                0.569031347409845,
                -1.1585325701198814,
                -1.9912726146732274,
                0.04748984854659008,
                -1.7537487115309027,
                -0.07424846943560132,
                1.6870183392739861,
                -2.180706451186914,
                -0.19780091585739676,
                -0.4685235898117041,
                0.08577030993457879,
                1.1205199525941152,
                -0.11733722316918543,
                1.6376394319341412,
                1.3506976989541783,
                -3.1122245070635115,
                -1.2498205725064881,
                1.3776539914245807,
                -0.6764039040910073,
                1.9789784512512716,
                1.1665421027371392,
                3.488874705984593,
                -0.6931462936300737,
                2.03901913336383,
                0.8974078503565986,
                -1.3793603735961972,
                0.04407843944300713,
                1.2841662503615972,
                0.035416106540607936,
                0.49953927675848203,
                1.085289740316417,
                -0.7002646687625742,
                -0.8146872483871864,
                -0.36628630312862515,
                0.03174303761518923,
                -0.07221341910920422,
                0.6127685006242869,
                -0.24587981137427317,
                -0.28837122777912855,
                -0.46299171570639364,
                0.0866342963049138,
                0.42552855733777145,
                -1.714619468903079,
                -0.49329918835758324,
                1.9863686926900639,
                -0.6267999780925951,
                -1.338774457133974,
                -0.39704400165869264,
                0.8845133957484433,
                1.5479858716393728,
                -0.9064613936253583,
                -0.27278019870346903,
                -0.01733169541109786,
                0.17131500752544263,
                0.2819222123090665,
                0.9300443707849004,
                0.9230997928979879,
                0.7743719658105531,
                -1.2020386185419853,
                -0.9677895846568285,
                -0.48251375685244324,
                -0.231175390688588,
                -0.027989009976416717,
                1.3566617980577431,
                0.4836777689995026,
                2.360780268623482,
                -0.3295003299300672,
                0.19020827187869596,
                0.3244153844253093,
                0.05957919239128405,
                1.1160144217271541,
                -1.4385923668802314,
                -0.19699823494487467,
                0.32926600025958097,
                1.2393333735850547,
                0.45396620887739325,
                0.6934291975007703,
                0.2964966508049629,
                0.011658218354221,
                -1.7222054034517633,
                0.634141093399577,
                0.12271080971953882,
                -0.048159425994514095,
                -0.5540320783104996,
                0.9528955228705246,
                -1.0283768767403132,
                0.9418582030615186,
                -0.5859593343874486,
                1.3817111485879303,
                -0.49359553129037204,
                1.2974134708957221,
                -1.0365935961750208,
                0.14158586138919935,
                0.6197118570339785,
                -0.4176207414155039,
                -0.39372608796872477,
                -0.40983671320879783,
                0.4022234403559026,
                -0.8342230875269467,
                0.552312241294254,
                -0.850671525258236,
                1.3537638438548907,
                -0.6290181304992172,
                -0.6676042685574168,
                -0.126494518061929,
                0.36394904983911675,
                -1.072035257271409,
                -0.10859291530515518,
                0.7424123465182483,
                0.3445592151897972,
                1.3566253977705234,
                -0.393610059990086,
                0.08958764518036863,
                -1.5411823202713797,
                0.008846564730021426,
                0.4592017065331944,
                0.12663613775979357,
                -0.5394395042376275,
                -0.6157338342938736,
                2.4378512289770793,
                0.5933352356688468,
                -0.8373720082850419,
                -0.8158604298504387,
                1.218972978896534,
                0.7630134607716978,
                0.7838091604523785,
                1.5831944140404757,
                -0.5659775207969946,
                -1.3121334518147874,
                -1.7031025379197724,
                1.1713772001491234,
                1.369015455265061,
                0.31379527521423434,
                -0.6246521740397051,
                1.195451346706292,
                0.598777434648287,
                -0.7931525102314623,
                -0.06141959705509961,
                0.25504496797840565,
                2.3837226470578345,
                0.02123353855356947,
                1.7347542343624531,
                0.7833708028546567,
                -0.46966352165375863,
                -0.3215651181599093,
                -0.4736868907537231,
                0.8574186319335412,
                -1.8506444124774608,
                -1.032707399066718,
                1.6660251310432324,
                0.14213260226024152,
                0.9972679612366336,
                -0.8841251715305299,
                -1.6891826921116093,
                -0.3540301785937565,
                1.3875038901331989,
                0.2839092056290201,
                0.5068341764716556,
                -0.48175585030065177,
                -0.025104318575106786,
                1.219188490994035,
                -0.2271849758410078,
                -1.045393987525201,
                -0.1477679994769818,
                0.03958293168746929,
                0.8159513319970332,
                0.7721488719938545,
                -1.2414870502208943,
                -1.2955545988551322,
                0.5084428039912121,
                0.47914033976659837,
                -1.7079916069033874,
                1.4266104677515767,
                -0.797586380572819,
                -0.20320621951652837,
                0.5733566595447507,
                0.9809040215621787,
                0.03389611595659583,
                -1.6622166874228697,
                3.015053759864362,
                1.7969251305602703,
                -0.3708976041265225,
                -0.1517672777984083,
                1.693852448961065,
                0.07495534836384289,
                0.12065443786714208,
                -0.18725515831757575,
                0.5222192796240793,
                0.3385922562261025,
                -1.707904067490581,
                -1.0751143585819067,
                -0.13095224119234056,
                0.3578896810593126,
                0.12987094816688532,
                -0.27991374381210854,
                -0.8900912486169239,
                0.01455298338815986,
                0.4202544854837041,
                -0.16987644978978703,
                -1.01024356565977,
                0.9643238785068429,
                -1.472310503769367,
                1.8478552650654083,
                -3.073674446831713,
                0.2846424298067562,
                -1.0441472403595877,
                -1.1749731218046886,
                0.13719435800547156,
                0.335904581709418,
                -0.37020210553750116,
                0.10513089745573584,
                -0.6141424507950015,
                0.6171735851778148,
                -0.12100951250467057,
                -0.033065520454237204,
                -0.12981266622129914,
                -2.034319635166637,
                -0.23462661213890396,
                -0.7419040004301589,
                1.5244753226316652,
                1.1502904166390204,
                0.9904802130806742,
                0.09479017455015147,
                -0.04500587446385584,
                -0.8458974355583898,
                0.196011184393073,
                -0.20690156534932877,
                1.2109469549515492,
                -2.2889882540305884,
                -0.45649576492305116,
                0.5757700339977475,
                0.2751384888723444,
                -0.011270078714986463,
                0.36641170675153956,
                -0.8055567723624489,
                0.9503519598453847,
                1.3233509929576786,
                -1.0020043391451703,
                -0.9469013598838785,
                -0.31189665007439155,
                1.4422292163051773,
                0.52083169893894,
                1.6403757142896647,
                -1.5814254153328111,
                -2.037159063255811,
                -1.0916620393108898,
                -1.3380183044535414,
                0.6610356719162503,
                -0.8229311710108075,
                -0.5905780106277092,
                -0.44975739727873537,
                -1.766919821348138,
                0.18754169348363298,
                1.0142530811076376,
                1.1045942594642506,
                -0.3097791551945192,
                0.7254607114728312,
                -0.5207482140936445,
                -0.41484985666017565,
                1.653248898667142,
                0.20466866571146086,
                -0.384162743994673,
                -0.028788903868684802,
                -0.12173380441316277,
                -0.8948225974855147,
                -0.7839842917534838,
                -1.1918681538273677,
                0.13594485676194573,
                0.9110124202787988,
                -0.20805869103188154,
                1.24530109441282,
                -1.0600056625236691,
                -0.9055718713949094,
                -0.3103950521711941,
                -0.7173791482215262,
                0.34007428446325627,
                -1.193862790600849,
                0.06634507953838018,
                -0.2943086400913482,
                0.852209677037386,
                -1.6473409498572442,
                -0.3429358366847448,
                -0.9985365915389403,
                0.33988188435498357,
                -0.9521581161706482,
                -1.2724398845169038,
                0.17648028983007155,
                -0.4415560013408339,
                0.45472220337371516,
                2.193156721329763,
                -1.0217922057554034,
                -0.5630658118829213,
                -0.8522559861056693,
                -0.06620399252002565,
                -0.1142647635590787,
                -0.6049786634646996,
                0.7849046571133852,
                -2.18479278515706,
                -0.32352255369774985,
                -1.345137320242567,
                -1.2112409360388652,
                0.2725144881012867,
                -0.6850698311498775,
                0.35690110249809387,
                0.9404242483779999,
                0.22639089382073035,
                0.4224329472330025,
                0.4145243190252956,
                0.34902512648239487,
                -0.41632388448312263,
                0.4602616978349963,
                0.2310553379719874,
                -0.38663042427790834,
                -0.4111656350360171,
                -0.13997713371232332,
                1.2530898506942287,
                0.5839700402423335,
                0.09433829388197375,
                -0.34807661435630577,
                -0.6264774408593096,
                -1.0287771473837308,
                -0.9552575309067565,
                -0.28879317053329756,
                -1.1411514744190332,
                0.4345660894342924,
                0.7598322105626304,
                0.44641414212720815,
                1.7399205493154501,
                0.17672343079852268,
                -0.7053338110349039,
                -0.9706357605823338,
                0.4804755602295766,
                -1.9615072802474636,
                -0.12675598152930156,
                -0.35978032996504933,
                -1.498058212140709,
                -0.7724149673532602,
                1.0162751204730536,
                1.5815659316975217,
                -0.8123054079158074,
                0.9453064873591436,
                -0.7919354581063593,
                0.659289610783423,
                -0.42001336739567735,
                -0.40153836016229744,
                -0.9467057642150999,
                0.7430000731556815,
                1.9053299756322652,
                1.4125692107781298,
                -0.9124492266331002,
                0.06323942256617743,
                -0.546882853312007,
                -1.1170900838667797,
                1.5938617350900726,
                -0.06760041373654428,
                1.6275296452308763,
                0.06893896964016316,
                -0.3733142590645087,
                -0.2567105843620482,
                1.2797857809898092,
                0.7883025065168964,
                -0.34253745989429546,
                0.7133342010308993,
                0.589719895159344,
                0.5272178001818335,
                -0.03976597963041425,
                0.0986225202599104,
                0.44560773866028874,
                0.244576909237136,
                0.14323944056509577,
                0.2744077413240087,
                -1.7274949378191706,
                0.20447573302758443,
                2.382438358301908,
                0.027333523620855914,
                1.0894019597170979,
                -0.4272079532775316,
                -0.0344094861655603,
                0.21982987941050283,
                -0.21215874693409845,
                0.17263608931502,
                -0.789977147786131,
                0.17854345296913854,
                0.14640924854234663,
                0.23530233736435255,
                2.2027521435124098,
                -0.422827484893808,
                -0.5299356899314637,
                0.9766124421416543,
                0.4258154430332433,
                0.17237777976780147,
                -1.3254448628583024,
                -0.9470964467612603,
                0.5841595916014496,
                -0.7422923213197362,
                1.3685190121998665,
                -0.20688579797786952,
                -0.43398784006630864,
                0.25963411197591113,
                0.4231342771857489,
                0.76245202540989,
                -0.1408811451884323,
                0.49740338019332986,
                -0.6310665848279366,
                -0.1211317354645426,
                -1.1233749441386738,
                -0.19520810406585554,
                -1.291731525833227,
                -1.259679240370598,
                0.46748724771955436,
                0.465017613551046,
                -1.1547896696323081,
                -0.6783705007531643,
                -0.9115934290399439,
                0.41141409657098604,
                0.5476613032680316,
                0.8363803035611661,
                -0.1957533086169705,
                0.3161969208316167,
                0.4980939865204125,
                -1.501801043554227,
                -0.6849277170219243,
                0.7965670403675078,
                -1.5085530721330793,
                1.527086373335662,
                -0.3989532693271475,
                -0.29510515645274854,
                1.8626297788168786,
                0.034712288730434616,
                0.2949790206364826,
                0.19037833338230276,
                1.4461965814137054,
                1.6389851175775672,
                -0.20265909136135304,
                0.582564903655756,
                0.4376737581661586,
                -0.9977336884780938,
                -2.3450776889221885,
                -0.5921425979231902,
                1.0132667787591025,
                0.44613297707465344,
                0.034405033983230575,
                0.7796929083279487,
                -1.505041082088057,
                0.6573700877205582,
                -0.4822959651840689,
                0.5749310989676235,
                1.319393776234844,
                0.7735788647762712,
                0.8214983881645981,
                -1.0699228818635307,
                -1.9464087344965808,
                -0.05239662609839194,
                -0.17754301169695155,
                -0.055772580068880744,
                -0.4566491537798927,
                0.8953784610468675,
                -1.8842806322248518,
                1.321266746939432,
                -0.8819900734714022,
                -1.1825805532937854,
                1.3528258840199736,
                1.763121686595303,
                -0.022684599140173182,
                -0.7648124734628964,
                0.35169020854164795,
                -0.08626916765484956,
                1.2387078655219692,
                -2.7641477661578193,
                -1.493136827465412,
                0.07340793092531203,
                -0.036585453062065364,
                0.37770636803347873,
                -0.5055610657450705,
                -1.2319660344458851,
                0.7983220596990663,
                1.0491718199768947,
                1.0382216084750044,
                1.1965442268326756,
                0.8730704283366402,
                0.5034143734852106,
                0.6083547395843679,
                -0.2847914119188198,
                -0.7312925404230769
            ],
            [
                0.003797363791614806,
                1.7818667398084653,
                -0.20450542805063926,
                1.729707637994531,
                0.018756868040716093,
                -0.21705573307025158,
                -0.9372453165923136,
                1.3711611616723909,
                1.5313448086175998,
                0.5258950154137118,
                -1.5448187418763752,
                0.6049634006302009,
                1.4613392167858843,
                -1.4786099789327938,
                -0.23076618573814345,
                0.3151065426785073,
                0.7756198961065609,
                -0.896443778499285,
                -2.2989936497783443,
                -1.205492918382213,
                1.8622299947542105,
                0.5476883180969757,
                -0.9951732023763609,
                -1.7203567532562016,
                0.037887768159729454,
                0.886643761043588,
                0.8830723931428557,
                -0.8261945530278587,
                1.0324894268263705,
                0.5067396554593504,
                0.4319241365582106,
                -0.607896481454465,
                -0.303695470107315,
                -0.4962826836166527,
                0.5868972619935113,
                1.1962564388418824,
                0.10130305121823224,
                0.253789006749845,
                -0.19252581003677352,
                0.8524350710739059,
                0.5561480903537847,
                -1.205062073392741,
                0.1346728336058449,
                0.24644395215746406,
                0.27577688272253853,
                -0.7938349329170094,
                -1.8807217441878268,
                -0.9070038873658882,
                1.4384965897372248,
                0.1431029027358503,
                -0.8409956111214105,
                -0.594080426105852,
                -0.644626470827795,
                -0.7037223069354237,
                0.4271045587504028,
                -0.09930962562509178,
                0.10189159041191281,
                0.7963797666301513,
                -1.059288348056857,
                -1.748606821500702,
                1.3822227323819947,
                -0.5033425376313143,
                1.4213787217869065,
                0.07084432991631688,
                0.1979996952549952,
                0.06975630970693203,
                0.7463470119239384,
                0.05319451843780537,
                -0.03730894903117416,
                -1.7884834592153462,
                -0.5125255345696342,
                -0.17049796781617568,
                -1.6084596037573022,
                0.8069565604953111,
                1.0548231487547657,
                -0.5755314615151522,
                0.3448808792593289,
                1.1565390809384528,
                -0.0016676379849458686,
                0.7310563528705005,
                -1.5196967729613955,
                1.5589429752293094,
                -0.08855456923228934,
                -0.24501676250612517,
                -0.6746858572468094,
                0.11264125436802357,
                -0.3922131381320309,
                0.37516609726665145,
                -0.3758115518888436,
                -0.13977612071445078,
                1.1405035608465832,
                -0.663044819620266,
                -1.012847964895128,
                -0.07422094414016053,
                -0.10094353413998737,
                1.4297156692386346,
                0.5541027030868925,
                -1.1706464731055946,
                0.20931346580710206,
                -0.6331660906557546,
                -0.1479748967468151,
                -1.1559145191900935,
                -1.45876396347273,
                0.005096711713786164,
                0.8624653019584168,
                0.13479335158177055,
                0.5803371225177866,
                -0.19195061119949772,
                0.4763551509065586,
                0.5122393883671291,
                -1.5206128987995733,
                0.2211796737628288,
                -0.9496643100531559,
                0.057744110109690786,
                0.9145585109882792,
                -0.12737517443540192,
                -1.096700664685332,
                -1.3364291382913773,
                0.30360498460508445,
                0.042453451348717405,
                -0.07697177467459397,
                -1.469571960346608,
                -0.8643520668891644,
                0.5987148637157245,
                -1.1548435267587553,
                -1.363191417432968,
                0.4062031144623986,
                -0.9741247596572118,
                1.7643755542215018,
                1.2848140408586997,
                0.47537645396100237,
                0.45073047515643083,
                -0.10851063328915117,
                0.9573154243453988,
                -2.0032252936430206,
                1.101395961272755,
                1.0387580490162995,
                -0.5130253637796569,
                1.7780605292715823,
                1.3379958376731613,
                1.1880372361094542,
                -0.10051336251367096,
                0.7116763210826924,
                0.24395685750501273,
                -1.4839854729445756,
                1.854024176280291,
                0.9521413719681339,
                -1.1185691157158,
                -0.49384402306897224,
                0.9088878314956182,
                0.39989211149062076,
                -0.0817696423762646,
                -0.31186555368551716,
                -0.974627989626501,
                0.9646185844745592,
                -2.6757439410168993,
                -1.664224331104738,
                -0.9609818141745553,
                0.5775108773833075,
                -0.6089366267442151,
                0.9133855184897515,
                0.35603546125287294,
                0.09755299437520966,
                -0.8119187329693139,
                -1.3920803072793722,
                0.9224788847530504,
                -1.1928839409197607,
                -0.09212520998921077,
                0.6685389154467314,
                -1.2453813651894707,
                1.4264762882522568,
                1.9554664431127329,
                -0.4772644221387857,
                0.6238779334111324,
                0.21664599090505235,
                -0.6470606954396044,
                0.02808206931217726,
                -0.41294434816496517,
                -1.8161596096334633,
                1.377970774433184,
                -1.4738825136984963,
                -0.9302779957058301,
                -0.7025530433787485,
                0.03852402922961359,
                0.08940603930889866,
                0.27147542992409696,
                0.5830397240637543,
                0.8525198496988423,
                -1.2733003360934851,
                0.1572966653873535,
                1.3218468736411977,
                -1.0890250584158419,
                1.0951612667984036,
                0.3615758200339354,
                -2.0208868860660716,
                0.04670798309278064,
                -1.7400117291062032,
                -1.047766440618323,
                0.4440233035467151,
                -0.29152883070103847,
                -0.5029262806052426,
                0.012533370035398336,
                1.310769954945593,
                0.29292633322961836,
                0.21586237913822504,
                -1.4575844908786248,
                0.4745467127437841,
                0.10689941797783206,
                -0.25729174902862373,
                -1.2909839407013288,
                1.37757937413359,
                -0.7490577892177366,
                0.4812344435518103,
                -0.028824940064470818,
                0.5121318362756401,
                -1.1150666020141393,
                0.2636017101941063,
                0.8873242803989273,
                1.0197401593549842,
                2.0292473614275535,
                0.6319342998687846,
                -0.9509955542214654,
                1.3960959737298053,
                1.0613316439584128,
                -0.5021313506658862,
                -0.4519096102048905,
                -0.18401110214916594,
                0.2732960107094184,
                1.5985152748566003,
                0.4843208212406894,
                1.3163834787099078,
                0.7010534037745251,
                1.0813188411816792,
                -0.3587172893496299,
                -0.8463195851495665,
                1.489025826992075,
                -0.8585383060138826,
                1.5578727274390218,
                -0.37731125490645584,
                0.7514334241850925,
                -0.4377915123303263,
                0.7135911539250903,
                0.09398774204012804,
                -1.0016126439253235,
                -0.9354533364289642,
                -0.2502474190262614,
                0.45136400797225723,
                -1.028256792307022,
                0.27890351133315555,
                0.22016965687912882,
                0.2508491958000778,
                -0.4921968745179232,
                0.4533224545290841,
                0.4335412081292534,
                2.328213311143196,
                -0.3442274425720109,
                0.37789893504088545,
                0.709920343442646,
                0.05999103519766368,
                1.5554254053799095,
                0.6441347486040224,
                0.19815652825392294,
                -0.22626065745059656,
                -0.2739243581591747,
                -0.7509133114648578,
                0.7297428392582258,
                0.42805571038272416,
                2.1804566999707973,
                -0.45201296556244924,
                0.6430528414855325,
                0.6173748447906507,
                -0.2800660382084683,
                0.3751660137273998,
                0.12441540816509337,
                1.3757619446032008,
                2.033496420534104,
                -0.3744957031793725,
                1.3557609768854428,
                1.4728164593672646,
                1.482126602177227,
                0.6332074854903131,
                0.4242139644116124,
                0.7926244375864432,
                -0.5391435524309169,
                -0.005334389593396969,
                -0.3923865182021463,
                -0.9684802573303953,
                0.6053000649278825,
                -1.3610682378085797,
                0.10993241046198972,
                -1.0019686642400054,
                0.07074396103224136,
                0.003292327467306627,
                0.5525416606225559,
                -0.5817593174886388,
                1.8242438581086338,
                1.6733080045820008,
                0.9529991514782578,
                -0.6829373759597267,
                0.40548441299857346,
                0.15477926533672337,
                0.6851031268363748,
                1.084296518483518,
                -0.3024036139547292,
                0.13823954267483587,
                1.0647610947919057,
                -0.23572376281781665,
                -0.018880188496173723,
                2.3670852013260446,
                1.6150868917137655,
                0.5101747147358626,
                1.049392738177003,
                -0.2679268035833735,
                -1.1439330433339001,
                1.0408963021563697,
                -1.1388378621437487,
                0.21915637928885784,
                -0.8377350642994269,
                0.1298794245610833,
                0.4964456170410375,
                -1.6256642864480635,
                0.6218872278020288,
                -0.9004808597001694,
                -2.2799087147145487,
                0.23378753579506872,
                1.3857011827041634,
                0.38223673785480794,
                -0.4329920667453842,
                0.5564963761478061,
                0.1621314753291044,
                -0.26944802597900885,
                0.9769720403415937,
                -1.0880940127447218,
                0.5890011347578519,
                -0.08710805558011327,
                -0.03727562744503063,
                0.9615037775492157,
                -0.5535793505227011,
                -0.726940549284057,
                -1.5565480412181787,
                0.3225009748722637,
                -0.7204973200916467,
                -0.3600375625479242,
                0.74036595180675,
                0.1693207971725895,
                0.5210660555458096,
                -1.0952966212372424,
                -0.4132478020680193,
                -0.26002693466701615,
                1.7855250783756793,
                0.7237483785692488,
                0.7056748114583885,
                1.1263260540231066,
                1.5024114682531646,
                0.24077229656080007,
                -1.1207122802562666,
                -0.6171940384556598,
                1.208760172121998,
                -0.07450960931050093,
                0.7052191312884469,
                1.5577312413070714,
                0.27855041857465473,
                -0.10014059674270068,
                -0.8968493389743766,
                -0.5627520441491932,
                -0.9004120801255139,
                -0.47465840017659927,
                -0.385205106855557,
                1.3061039085255177,
                2.3135360670291085,
                -1.6921246631882603,
                -0.8235431395041044,
                0.5150085148746756,
                0.08814693156368211,
                -0.0278519145450277,
                1.520971373007752,
                -1.2533737156142344,
                0.85697648226978,
                -0.28627168275200854,
                -0.4704341383136326,
                1.9561745514275937,
                -0.11820209463895584,
                -0.8626387012932257,
                -0.4981284535288121,
                -2.290592191630572,
                -0.08540038602454637,
                1.7210561308077579,
                -0.7206499700677779,
                0.1360070409418449,
                -0.5720744820375736,
                -0.5136898035332951,
                0.3233113287355623,
                1.8274278899218335,
                0.2819368391845815,
                -0.5739629343844588,
                -1.0100994099126368,
                0.11714772238745544,
                -0.6454784081165775,
                1.5439077404378156,
                -0.10488957430289916,
                -1.0173182812906674,
                1.6906546223800756,
                0.4733217720064957,
                -0.6344099568053723,
                0.07938986425256678,
                -1.559075361892334,
                1.0821241347139574,
                -0.049401123816374605,
                -2.1061064413298283,
                -0.8483367665942781,
                -0.767590228482717,
                -0.11927945180359321,
                -1.8381854584822719,
                -1.244659825164234,
                0.3392522177106642,
                -0.5654823955217264,
                2.4513835743424424,
                0.06670536326012777,
                -0.3105958766073496,
                -0.3236730044907347,
                -0.7481532234638641,
                0.9004376447098376,
                0.38588408707606336,
                0.8028065478385761,
                1.1797493036434599,
                0.3843000302571028,
                -0.2156955351141696,
                1.0389184846703763,
                -1.4373127119462346,
                0.5751687162171712,
                -0.7034294543824294,
                1.0728020926168957,
                -0.5309210602218427,
                -0.06260246678332239,
                0.057967955576808124,
                0.01492444878783762,
                0.45785757117095255,
                0.4953624184842971,
                2.175687867213412,
                0.32987859350081666,
                0.15917951888173876,
                -0.7927989983864412,
                0.9775789525145376,
                1.7993610215368583,
                -2.176158762606098,
                0.530222953226723,
                0.09277527644561176,
                0.270377554056682,
                0.31136484717551,
                -1.278278112022792,
                -0.6746890737092961,
                -0.5502742572763242,
                -0.6111177310005133,
                1.9159184640406677,
                -1.6827809678442285,
                0.2520759674064039,
                0.32326115934056837,
                -1.389259124897459,
                -1.1962893102618108,
                -1.093571809285707,
                -0.551267091369111,
                -0.7619191985731563,
                0.612036865739721,
                -0.7938212973480756,
                -0.5150585251514617,
                0.5121063115593291,
                -0.9549738699810331,
                1.0489036536759029,
                0.15837318540854534,
                -2.123760399514485,
                -1.0056964114474043,
                -0.8445804696394432,
                1.1593705143765307,
                0.10199409441400391,
                0.9400288968125202,
                -1.2176521292423248,
                0.34511247130734707,
                -1.3952622241104118,
                0.2464755723034344,
                -2.1940662404401126,
                0.6002102954385286,
                0.7918747679721349,
                1.1733592638638717,
                1.1904804953233756,
                0.3485229177824558,
                -1.0855412854828117,
                1.0877088594794004,
                0.7517234835170218,
                -0.0636447813611617,
                -1.0920740795584063,
                0.9962276300570981,
                1.58777309595658,
                -1.3072629232754613,
                0.03509374514927157,
                -0.9070815390748304,
                0.32416760495098523,
                -0.08230964939257586,
                -1.7922371439552038,
                0.8042235689491736,
                -1.1374128320349144,
                0.9269298572563001,
                -0.6409425755364044,
                1.0365034367127781,
                0.48726503760466866,
                0.33395735968931867,
                1.8566389998888018,
                -0.2732559605673748,
                0.10462090183065284,
                0.10267340248479,
                0.12775637722492322,
                -0.002526231986911094,
                2.509141623588066,
                0.8840998828925335,
                2.1325080116267117,
                1.0039939167901348,
                1.6575869815786493,
                -0.12347462509510715,
                -0.08387940855217028,
                -0.004986395467729468,
                0.17712650130801044,
                1.5595509098136682,
                0.5055967523394848,
                1.983470718198748,
                -0.24811421880727452,
                -1.0443829022191553,
                -0.4767810868404056,
                -1.1260240558126757,
                1.0699427392164342,
                2.414217117319447,
                -1.2400145025244669,
                -1.8787029876049652,
                1.2786109415372677,
                -0.015404233046500838,
                -0.7002101564423538,
                0.9900465583904309,
                -1.2028881516086387,
                -0.5745143132625217,
                1.184548593204819,
                -1.2003625587577404,
                -0.5771615526540332,
                0.7032548420412229,
                2.348739195535911,
                -0.6282877556939772,
                -0.03821602795269239,
                1.7911250664070733,
                0.18293036272185187,
                1.1302624905063539,
                0.2912413042799095,
                -0.5973699567004672,
                -0.004818477678797899,
                0.3220093613016451,
                0.2758496331139935,
                -0.7335631683302704,
                0.517264240900464,
                -0.5737538971955609,
                -0.851169974662835,
                1.1577934484218895,
                -0.3299363786311858,
                -2.122640412443822,
                -1.1174367816400799,
                -0.4666898881682518,
                0.6326370690130918,
                -0.46406967526363074,
                -0.7083742786926706,
                -0.83891212878856,
                -1.7276937472825342,
                -1.6154409244247376,
                -0.31197267921645905,
                -0.44736640936120137,
                0.5734022164690001,
                0.4840096957084965,
                -0.4247156631994582,
                -0.5133484416042006,
                0.7705766578673098,
                -0.25187978248174286,
                -0.6340835490680465,
                -0.47197754475137654,
                -0.2832518510212864,
                -0.18321070151336985,
                -1.2139437906113943,
                -0.46853294037491516,
                -0.36013954169806317,
                0.448253767416102,
                0.5027227624341277,
                -0.5889427086820345,
                -0.3983128346863895,
                -0.7409389512049929,
                -0.4305922267908538,
                -1.3574290805120377,
                1.0710265099070149,
                0.7420526901353603,
                -1.8273308204802001,
                -0.5796256445008511,
                2.021147172796021,
                -0.24132029494650378,
                -0.6461518283310603,
                0.6074263700414482,
                -0.8988115986697301,
                0.1154263734487838,
                0.12003721151908793,
                0.08632810976652905,
                -1.379232406358653,
                1.150514775395484,
                0.6157686196772161,
                0.3725277738548204,
                3.0508946255809755,
                1.041485369073372,
                -1.2775864572541766,
                -0.0894883870387871,
                0.4292500191502469,
                -0.47143953467414007,
                0.5522604699360899,
                0.6487025037245078,
                -0.9692048525347623,
                0.08188473695489562,
                1.4454997361260824,
                -0.5886050383113638,
                1.4459401978958117,
                2.160881311411768,
                1.7060602518599446,
                -1.145864769320017,
                -2.3912554336832152,
                -0.2504014332238404,
                -1.5697065821365814,
                -1.261131180306434,
                0.6001982640865001,
                -0.7927616741792226,
                1.1110878357957834,
                -0.6308527499248235,
                0.4204989362314199,
                0.6420029283126025,
                -1.4339528355086357,
                -1.6216724717387723,
                -1.0854784889506606,
                -0.4514862827160031,
                -0.24417279382303583,
                -0.8520159136190927,
                0.5200013719495679,
                0.6915863447684976,
                0.44907872199835047,
                -0.04891895580754921,
                -0.46939457215001235,
                -0.17790726291650089,
                -1.596869931344493,
                0.016601605705198072,
                -0.0901724381573544,
                0.21798317288470892,
                0.1845729199390346,
                -2.149928268096355,
                -0.755879643494195,
                -1.0383270472193724,
                1.9362137862722217,
                -2.605217977309968,
                0.020037036880605968,
                -1.8352833857898296,
                1.3325848374028857,
                0.6289186586484576,
                0.09924003023162256,
                2.3510266276179728,
                -0.7767470047445533,
                1.6239488559775614,
                -1.2932998975004948,
                0.9625374546255362,
                0.8175979243148643,
                -0.0420797675749593,
                0.7628758941086271,
                1.0722117448918154,
                -0.8774077910803485,
                1.4465391574688582,
                -1.2031571276046964,
                -0.12084046560927175,
                0.045562262559682584,
                -0.31376363963640114,
                -1.0456457288058119,
                -0.8379761006594196,
                -1.045737162031435,
                -1.5830960904378888,
                -0.6304162617638105,
                -0.7353530397804776,
                -0.422644508728475,
                0.36236072788204654,
                -0.07655848134785938,
                -1.5777874009893755,
                1.0423577193265152,
                -1.8327170508518327,
                0.8737024261316532,
                0.6320282696249121,
                1.2831384364121439,
                -0.9106437349816247,
                -0.8056462313759519,
                0.048254352597708355,
                0.4043860598113837,
                -0.3594285526454496,
                -0.20235390287419772,
                -0.5896297805943608,
                -0.5071594957068394,
                1.2557437242204845,
                0.2545993436245311,
                -0.608436686365747,
                0.3910308924879631,
                0.008173565526001202,
                1.3216906007055962,
                0.3500084756799136,
                -0.9393514547832625,
                1.5513588653350348,
                0.695417851496205,
                0.4584855483502151,
                -0.08005752719370936,
                -0.3451921253271655,
                0.5801864888479428,
                -0.4379414677896376,
                -0.10803948005895797,
                -0.401856668880234,
                -1.070339056701452,
                -1.0117576691149113,
                -0.6671382562665693,
                1.155487793729976,
                1.5105650991904416,
                -0.6579363471217506,
                -0.4227647598207362,
                -0.8128157752585519,
                0.6560147890400464,
                -1.0612794625417963,
                -0.15197360573864696,
                1.448871577631185,
                0.331931674381647,
                0.7919494405243468,
                -0.9709887596294271,
                0.04210592504772953,
                -1.9317600323331046,
                0.7286221068686837,
                0.4316387071428375,
                -0.8223284927262875,
                1.500525925740617,
                -2.4712728786305216,
                -1.8357695788517654,
                1.970875536087685,
                0.08638168066910536,
                1.412769313279351,
                -1.317015082636857,
                0.20225867623199434,
                0.05760274232367918,
                1.148390186955334,
                -1.9227198320668506,
                -0.9501561411435846,
                1.438308232517426,
                0.27865052679149876,
                1.4561466882436738,
                0.26390507343982933,
                -1.7441925664706917,
                -0.982844648987945,
                0.4605395354660504,
                -2.0028119123078447,
                1.193060879035347,
                -0.8670101075896873,
                2.353295668216016,
                -1.3450049295015434,
                0.207147655920844,
                -0.9671481330246144,
                0.4770839137076621,
                0.9478828016082191,
                0.47535096934186316,
                0.8433769838911624,
                0.48921205351007396,
                -1.1429164638379248,
                2.5246462842708097,
                0.20947554947612196,
                0.5285479206021303,
                -0.22187069386242284,
                -0.3831917409911283,
                -1.774723493175003,
                -0.9977802839327644,
                -0.7275638833652076,
                -0.01886336065601657,
                -0.37254982394831165,
                -0.883362653661075,
                0.38072797863057367,
                -0.7627911633731809,
                -0.46053357561204816,
                1.036594836469773,
                0.026544615736077255,
                0.9206945862389768,
                -0.642334821603168,
                -0.37853802838657247
            ],
            [
                -1.5526676470299632,
                -0.3518559749940871,
                0.06515478236220426,
                0.8640743565361195,
                1.287831973787114,
                -0.8145719202559373,
                1.396141526486011,
                0.34312176985908327,
                -0.9874131550274344,
                -1.309118895152703,
                -0.3603816700414589,
                1.8445776524959554,
                -1.0987593354899299,
                0.761253935519306,
                0.6198262040657413,
                -0.30663647577876685,
                0.15255447183821977,
                0.9888331403419903,
                -1.002536986068369,
                -1.5194659624557847,
                -1.294549181833398,
                1.2562888720282195,
                0.4700406028083697,
                2.9277895914624392,
                -0.5911644702374886,
                -0.2435123252741725,
                1.2676682492401146,
                0.6030593820022666,
                1.8717252582502057,
                -0.6376907856279801,
                0.027002134994432804,
                -1.2218952636680538,
                0.08951181143366209,
                -0.6751033812976941,
                0.5195299818684058,
                0.33394458421171697,
                -1.4127223208417004,
                0.4902230699392902,
                -1.066421614666201,
                1.1607629712103689,
                -1.1984402073696465,
                -1.552814756899044,
                0.9306843604353252,
                0.12679572494858155,
                -0.26819145842616837,
                -0.8459152499367012,
                0.8165640482117539,
                0.5127128101119508,
                0.11992653474652558,
                -0.30482662741610683,
                -0.8357211442004707,
                -0.33976167292469106,
                -0.21493456513249778,
                0.18860941825408692,
                -1.8440453853794174,
                0.33293885698755926,
                0.025289506751533988,
                1.7321937579294875,
                1.113764893416559,
                -1.2735268824716757,
                1.6390078172798224,
                -1.499959402860162,
                0.27429560460707386,
                0.04492776571718512,
                0.9236302614433819,
                0.23711711698212323,
                1.1039808679194965,
                1.3211096245371643,
                -0.3771027711829695,
                -0.16334518950409993,
                -0.40243223834185265,
                1.8875928439489897,
                -0.9599516109882785,
                0.7307329597185173,
                -0.0989818304837013,
                0.28800578518100495,
                -0.747850369210933,
                0.09825870432043847,
                1.3686576585269346,
                0.34297206492668286,
                0.17095068011959882,
                1.587732876368099,
                -0.795722354978468,
                -0.6201188882790076,
                1.1273178910818635,
                0.20529585825546331,
                -0.5841422338712808,
                0.41615981479233294,
                0.8403830981656846,
                0.46069006925056133,
                0.04117352045583808,
                1.5546850083047117,
                0.7663682377964772,
                0.8965471803038052,
                0.30014367173647205,
                0.7010250670442258,
                -0.8268869520351755,
                1.0054700317029006,
                0.8197413447826185,
                1.3010122252280203,
                0.8074215184132614,
                1.636668738717679,
                -1.5742047840146371,
                1.8799183571710119,
                0.19190316975932212,
                -0.05777061229365854,
                0.42554448515471954,
                -1.06699457189845,
                2.1919521848570227,
                1.5454556947932023,
                0.1347676840927035,
                0.9179879123725152,
                0.030017338215008214,
                0.5104181737296781,
                -0.8915140779739292,
                0.8605975066076339,
                0.5614676782198172,
                1.8453649787753832,
                2.8072457924761296,
                -1.1524004486657393,
                1.1704931472360014,
                1.2558759590755748,
                -0.3939622409089808,
                0.11982619328613989,
                -0.912810567175225,
                0.741038510841897,
                0.6879431298964855,
                -0.2725653495649797,
                -1.0606067259269492,
                -0.024268960947566927,
                -0.3354754818242045,
                -0.8871280783119981,
                0.5370745420056295,
                -0.1322413099219883,
                -0.028324546583429467,
                0.06829596194547194,
                0.1377482140484744,
                -1.5071888096845323,
                -0.9661840166550603,
                0.7443613239804382,
                -0.7081839825666273,
                0.7289902819288099,
                0.3982241555260478,
                -0.5856012017315863,
                1.7964411624914685,
                0.08472819887159351,
                -0.9704974668633054,
                0.7861873977318471,
                -1.029636605547932,
                -1.3144560518950672,
                -1.0763514483985774,
                0.36647182394149086,
                0.12765570503683132,
                0.12036900311778644,
                0.10600526899290291,
                -0.5419345889719587,
                -2.168813580149869,
                -0.057415130824233614,
                -0.19212181420187616,
                -0.07923506370550616,
                -0.7467914015501453,
                -0.436401895392498,
                -0.7851746139420653,
                1.4994341048909312,
                2.4817846725822235,
                1.3613046474290582,
                -1.6312886249392695,
                1.1744215555067727,
                -1.2816385888439747,
                0.15397246205894266,
                1.0842674311183156,
                0.6870696036875833,
                -0.5218668804144974,
                -0.7311706583165174,
                1.2914373963681054,
                -0.7806965000122886,
                -0.6880150270779807,
                -0.07649830126389975,
                0.646261500816042,
                -1.2942666846532136,
                -0.8017839042859364,
                -0.5745258162261724,
                0.5080047742835727,
                0.1083900773898388,
                -0.7814226028267759,
                -0.09151477495272264,
                -0.3092691559730048,
                0.08614993647734918,
                0.00711815511113341,
                -0.3215246852152913,
                1.6021800500454908,
                0.423339481175919,
                -0.5559229816108652,
                -0.6746818740553951,
                0.5976550633322455,
                -0.07269201482216549,
                -1.7637582385174142,
                0.6629926575385959,
                0.11852319250688555,
                -0.32870164453164274,
                2.2819767187867006,
                0.9086517259847742,
                -0.7899155883435774,
                -0.27087068463151964,
                -0.44126311473755325,
                -0.10533270140605024,
                0.5194663278454349,
                0.38201845587045463,
                2.0863763577839216,
                0.9280954012508468,
                -2.8563944726827564,
                -0.46800972797472357,
                -2.1946963811871907,
                1.4137389492099848,
                -1.2373257938138242,
                1.0680867247528483,
                -1.3917710472423628,
                -1.8588032371935952,
                -0.2631805964262798,
                -0.24308201436367555,
                0.5114180488288281,
                1.1702532729693573,
                0.19566189494830635,
                1.673722624824659,
                0.15967781108271442,
                0.9284046719471087,
                -0.45416266488672324,
                -0.538576177388516,
                -1.0416118080255332,
                0.5584974537643099,
                -0.2923501444236995,
                1.1058033170954225,
                -0.3538878223662775,
                1.0738236582033336,
                0.30640176872547237,
                -0.24115866985667933,
                -0.9507414073011825,
                0.034017914918551835,
                0.7638415949259683,
                1.2545398047672054,
                -0.9870792470203652,
                0.19552229184034242,
                -2.035948077993193,
                -1.3517441043158873,
                0.4486365165943691,
                0.10902173654265912,
                -2.0276894558442837,
                -0.00678339281322998,
                -0.4231873895692256,
                1.5146968905907714,
                0.07989599288812822,
                -0.9501020861148542,
                -0.19173403351823762,
                -1.3853375467014026,
                0.4680440713987705,
                0.32307325139238086,
                1.656294765027204,
                0.7126734912464445,
                -0.46973187594482363,
                -0.797408754206578,
                1.8708018138512292,
                0.3439964339129506,
                0.05046152527769911,
                -0.6939005465252069,
                1.339431066889119,
                -0.037005052707358606,
                -1.5809122918592309,
                0.8060777120532474,
                0.9299979840951819,
                1.2215089981466603,
                -1.4793408161011556,
                0.8974397504588186,
                -1.2963418911778177,
                1.4415213452350408,
                -0.5302326566001219,
                -1.5754920057655168,
                0.5612638438560023,
                -1.9007284418372379,
                -0.7055083266953914,
                2.334466931252197,
                -1.3978694115897836,
                -0.2089250396249995,
                -1.5669823167001606,
                1.2620134276166213,
                0.6208926552811074,
                -0.9871205014011111,
                0.7531776840469846,
                1.500357575422724,
                0.3170432372558135,
                -0.3520599878973296,
                1.006678912855629,
                -0.903371797564997,
                -0.05395331403749785,
                0.1715718845166391,
                0.8967174298368025,
                0.4977427942051288,
                0.065715423776343,
                -1.5332389125056498,
                -0.20044544722622762,
                0.28432049664843806,
                -0.3076720579245197,
                -0.7073239354046709,
                -0.7505089234965312,
                -0.28612966467526413,
                -0.8894401657443091,
                -0.2617131476870046,
                0.04233922585448902,
                0.6193985366601744,
                0.6146136584998833,
                -1.088109475928646,
                0.9492934163949256,
                1.410917520127496,
                -1.2335904312616395,
                -0.4223354812990733,
                -0.46780909773170887,
                1.045217030281881,
                -1.4247520482521066,
                0.300210503582165,
                0.4256485322974122,
                -0.878491987730003,
                0.6609052759684719,
                0.4185956045193185,
                0.5213253263884116,
                -0.6138705104761618,
                1.3984145206198964,
                0.5988714677607765,
                -0.6681547700249506,
                -0.19208479642232434,
                -0.2254051513001022,
                -0.8878858222604573,
                1.27669670307993,
                1.4324532699696888,
                -1.0698617601542302,
                1.7798813975964982,
                1.394028881580823,
                0.5318665296261047,
                -0.13587406792604886,
                -0.9963543072093792,
                -1.6102621586797745,
                -0.46629649861015066,
                0.05107891697555798,
                0.23706141336718922,
                0.7581579393878681,
                -0.4726287689203058,
                0.04948819334559813,
                -0.7803006531287037,
                -0.45141857973809196,
                -0.2560677979955159,
                -1.5195012114353637,
                -0.15922482219350775,
                -2.0622276802387693,
                0.647065428523834,
                0.2895764315061844,
                -1.0004017729348003,
                1.8246045372190567,
                1.1711295627576421,
                -1.4309042179108973,
                0.5168669741779666,
                1.5163491276566152,
                -0.2027891094941392,
                0.43871172725262314,
                -1.1292666799837658,
                0.42198705457686797,
                -0.37299973122144736,
                -0.5197854777809552,
                -1.0607577648545388,
                1.2527474470970381,
                -2.86702663149165,
                0.10308821202492813,
                -1.2357367901988177,
                -1.2660127343350214,
                1.991958364523894,
                -0.766781436474754,
                0.12007355461608048,
                0.09032102929166035,
                1.6622917363776266,
                -0.17478983575129645,
                -1.0223179612775648,
                0.0006120756173944028,
                0.5569514520429398,
                -0.9726945893192512,
                -0.36353806650194737,
                -0.38594344505759415,
                -0.9353756249086442,
                0.02808641932876071,
                -0.6409225974829179,
                0.5717183204132859,
                1.384169894567808,
                -0.969497944754587,
                -0.6835920281037658,
                0.8275617157637396,
                0.28567569880355587,
                0.11503646038912207,
                0.6986762527027659,
                0.1997147596630878,
                -0.23784657757592215,
                0.41667023047765744,
                0.21520123268215652,
                -1.0645113457862367,
                1.6701525315510024,
                -0.9757494079530762,
                -1.0796064445950093,
                -0.8432471061590574,
                -1.5319198852219156,
                0.22341604139708957,
                1.8648700569456322,
                -1.0490296130644468,
                2.3643252165197857,
                0.14113655592637236,
                -0.038880177119001304,
                -0.47111965788993454,
                -0.9719503724026941,
                1.273716810807994,
                -2.267020457815807,
                0.1327692155035855,
                1.7275188695316548,
                0.32816286731096767,
                -0.37830750097658555,
                -0.630335960389598,
                1.1891895036404623,
                -0.89249329909961,
                0.8449857124593668,
                -0.9558868792681615,
                -0.09915115272840075,
                -0.08003352627519945,
                -0.9309022411488445,
                0.38087354742997065,
                0.997031097602222,
                0.457788257007635,
                0.8587482107253697,
                -0.8536739141309377,
                -0.1266060772321622,
                -0.4550368608552678,
                1.161756722363126,
                0.04820527823014014,
                -1.0894150035195198,
                1.8438926544154974,
                -0.9029851908106001,
                -0.27065761051334736,
                0.014174011395846994,
                0.6981429582481086,
                -0.3467304265713676,
                -1.8671661262763064,
                0.8471791176752966,
                -0.8540054719974509,
                1.0391418236776369,
                -0.7348403927646623,
                0.2684619864586308,
                1.6303490657031474,
                0.9080590008786357,
                -0.5914040484237568,
                -1.5907178938779158,
                0.09948081640030652,
                -1.365838949189103,
                0.16546586076109887,
                0.40501090097762144,
                -0.9959146438153251,
                0.85485462298133,
                -0.15990472783580045,
                -1.1419125579960165,
                1.5129064774109326,
                -0.036823475369110646,
                -0.7216016725100871,
                2.2187793330642704,
                -1.157691727345593,
                0.8985929410720697,
                0.8362417856150629,
                -1.1129513752405498,
                -0.40558324688175845,
                1.0852341627661894,
                0.9238587641118816,
                2.3214114772718295,
                0.3063194220887452,
                -1.2237977680027625,
                2.3816548942547424,
                0.24339325894985742,
                -0.006213118781083954,
                1.7792325284763926,
                -0.13056079055345357,
                -0.9151032484496137,
                0.028159171206227848,
                1.390022286587181,
                1.364541419361594,
                -0.7000191855750404,
                -0.7871559808584603,
                0.8140092185102377,
                0.5974619799644422,
                0.559875406689972,
                -0.7907614986171275,
                -0.5332521375528552,
                -0.16784866710716323,
                0.9503850950333183,
                1.0346375099579361,
                -1.2187993432142066,
                -0.390828414687353,
                0.7689031056066594,
                -1.2003586569152616,
                1.5759085203931815,
                0.08619361344863455,
                -1.5814558759460748,
                -1.1121504427751359,
                0.9150787750779116,
                0.2641694224713385,
                -0.16011200562555405,
                0.3799063025268178,
                0.9833583718848051,
                0.7886041323490606,
                0.4112139991977246,
                0.7158214761832415,
                -1.3290104159573113,
                -0.5623835403478016,
                2.2325583021618574,
                2.523452386218321,
                -0.4825100376128354,
                1.0581980027048794,
                1.1195516611496836,
                -1.8410515063746997,
                -0.0411240309343432,
                -1.2529387447984472,
                0.3215734709433613,
                -0.3940571280035412,
                -0.4293582808294391,
                0.15685150050570335,
                0.6094073490147082,
                -0.38153543187376693,
                -1.1642052199043984,
                -0.6653731993508265,
                -0.7962580269614139,
                -0.0693041352268906,
                -1.8741241435820306,
                -0.9029274981455978,
                1.5151877070367274,
                0.1498038305340443,
                -0.8401533393463899,
                -0.6156215112396537,
                1.2804474852116985,
                0.03414404995286879,
                0.6430153291327058,
                0.14885968100859975,
                0.554315605650358,
                -2.2455243091428585,
                -0.011624068212820932,
                0.5199024291705292,
                1.9604353968013413,
                -1.3486803158471807,
                1.0836274283113718,
                0.19665872559274433,
                0.022194933572033473,
                -1.1143404197702076,
                -0.010427124648916439,
                0.5098591609005413,
                1.1184023232386922,
                -0.6325137419346595,
                -0.2134804274104491,
                -0.12192525941549978,
                -1.60393620797849,
                -0.25303383357717957,
                -1.7670226194604377,
                0.4512553611040879,
                1.1042163816061108,
                -1.3420368556305895,
                0.6772044756347644,
                -0.48774616297690493,
                -1.297983369841337,
                -1.0638890056307868,
                -0.6505031070513586,
                0.162776167480379,
                -0.06592041588062182,
                -1.6738123622530394,
                0.7497621246883265,
                -0.014284302019485075,
                -1.0721253585353534,
                -0.9107589039355751,
                0.16359315641459568,
                -0.07760854288212522,
                -0.6251814773786795,
                1.3110643073221107,
                2.42124911550148,
                0.36631837069084217,
                0.8396513120300302,
                1.1994423539666768,
                -1.2479216171709717,
                0.4459944703379587,
                -2.36915750156718,
                0.2266442406373077,
                1.2632571541069808,
                1.548743545625543,
                -1.7186765928483667,
                0.17909873478365088,
                -2.303458850715318,
                0.4454024355410735,
                -1.0048378804252884,
                0.3617604656986987,
                -1.257268262074157,
                0.1108094622040965,
                0.04538476242187212,
                -1.924227384269261,
                0.24945257784019928,
                -1.1981583253886228,
                -0.06217266022016131,
                0.23500317267308263,
                -0.983365444137297,
                0.26104679044537543,
                -0.27185017233193465,
                0.08101613738131863,
                -2.0024373130372095,
                -0.40104796400887754,
                -0.9093408657653802,
                0.8389987147574449,
                -0.8271483693623881,
                0.605355288453557,
                -0.8142459521089127,
                0.30276704702151874,
                -2.313681941125268,
                0.8011393472806084,
                0.3729827748246339,
                -0.5573801569603871,
                0.07229648893012905,
                0.6561757384557753,
                0.1314538118912887,
                -0.555040305472936,
                0.048879389374741164,
                -0.05799433580523719,
                -0.5411076410331378,
                -0.71817014771945,
                1.2798777971272441,
                1.0105225942801996,
                -0.154014701157793,
                -2.5108099409130746,
                -0.22159737437518426,
                0.5164400518435989,
                -0.6181131795872924,
                1.6989696788739357,
                -1.9331288733703025,
                0.13730877371458206,
                0.028852220215885804,
                -1.2354628052086787,
                0.06585122213438874,
                1.4327441370704554,
                1.3084773526772815,
                -0.7562080156607344,
                0.6272214354026837,
                0.517441575402232,
                0.49995750978498665,
                1.5250538876108748,
                1.006094376182596,
                0.067722535539873,
                -0.4018763936687072,
                3.005874338640614,
                -1.4224910999751406,
                -0.4229020271213376,
                -1.0911187081802172,
                0.28365062386856577,
                -1.314037043430748,
                -0.6750479077506437,
                -2.776942127314356,
                0.11773523306469612,
                -2.064403628010743,
                0.15454445797761268,
                0.3709133296312929,
                -0.4503567928280186,
                0.13848266165281106,
                0.9808332496678424,
                -0.237553984504248,
                0.5473759163816782,
                -0.7459998379228058,
                1.0733053980599085,
                -1.4051931464907974,
                -0.17266853132253052,
                -0.6359364426859562,
                -0.2254517388323385,
                -1.060403928791848,
                -1.3780465766973171,
                -0.15519132035743236,
                -0.5953781132551058,
                0.6249387336345271,
                1.2143796254302743,
                1.7570574086030568,
                -1.6500354083257556,
                2.193725513212196,
                -0.31635396457234083,
                0.0251960620612732,
                -0.10196574463294386,
                -1.2883861614771654,
                1.0627069415939343,
                -0.16888820377769442,
                0.05573502142136217,
                -1.812401331646609,
                2.2073866412109036,
                1.063147793985557,
                -0.5555774987849831,
                -0.18880584836395692,
                0.7700391327235719,
                0.21268525907682567,
                0.572949408523757,
                -0.5164038634252777,
                2.306928562336417,
                0.040499594754665844,
                -0.6498695188278062,
                0.4857467658686325,
                0.4758065241862259,
                -0.7532488627591268,
                -1.5348019451015982,
                -1.6652008581445792,
                -0.9737288209062284,
                -0.07698006004803103,
                1.8993515838623847,
                -0.16920686298713503,
                -0.2036835121389425,
                -1.003109088052618,
                -0.32771114542647717,
                0.3148403755961231,
                -1.4682552144038927,
                -0.26175937142560896,
                0.5126744837916434,
                -1.590170931035145,
                0.11011925937467354,
                1.6364549935801838,
                1.878841621037531,
                -1.2718103214451109,
                0.36569852364762595,
                0.9129314471208897,
                -0.018585786424505837,
                0.022491893272181734,
                0.14141823769889142,
                0.2332765787317879,
                0.11961086524009387,
                0.18011034728059616,
                1.1669610544476332,
                0.20827575378711605,
                1.39293515964943,
                -0.3244899942133445,
                1.0053565622379483,
                -0.7483499364256616,
                0.18803746344981875,
                0.27288810519686363,
                0.27623131877406604,
                0.2921883385004986,
                -0.9739702698539292,
                0.09341302383387019,
                -0.10720172201727098,
                0.712955082394528,
                -1.110314328379641,
                -2.400988866668558,
                -0.11029781132529576,
                0.7146109404972686,
                -0.5898527836119122,
                -0.26911739901000287,
                -0.7741475943461883,
                -0.8638691245018991,
                -0.20994334168722717,
                0.15989299287154252,
                -1.0305579011787347,
                1.0209168793377659,
                -0.44093985817844056,
                1.5531480726698446,
                1.3755317747582991,
                -2.3542778246641567,
                -0.08711983514078586,
                -0.09722908976218739,
                0.45773208663289416,
                1.0175364146429546,
                -1.718318829390411,
                0.29815355684810574,
                0.9806909432302209,
                -1.40797717541075,
                -0.42042921875314376,
                -0.5728900665055705,
                0.10050142505312744,
                -1.584985882539163,
                -0.30066770449853236,
                0.7025727384454092,
                2.4851292442818265,
                -0.7521385543031118,
                0.4944027964099577,
                -0.7551060015560995,
                -1.2459724178121183,
                -0.3961590773929151,
                1.2956744541207936,
                1.241202313141041,
                1.59747119136205,
                2.2049922267814672,
                -0.04878481420405731,
                -0.4768155841897883
            ],
            [
                -0.2442523876721576,
                -0.21788402937993537,
                0.03352255725738576,
                -0.7126111382704379,
                -2.607309098078732,
                1.4129349819256052,
                1.4449156260383795,
                0.3237972702369948,
                -1.334408764464541,
                -0.5958431710607769,
                0.6201588747357972,
                -0.49971983485682064,
                -1.8961119547173293,
                -0.4221842465419313,
                -0.2978903223502027,
                -0.6223445880049657,
                -1.5588899031364745,
                -1.1043026898977053,
                -0.42857885075493285,
                -0.1189727734013221,
                -1.6575415194122833,
                0.7283009737576281,
                -0.005583803587672467,
                0.7653580184391042,
                -0.43865468252885914,
                -2.8755307145556332,
                0.8211410652204729,
                1.4058262303931819,
                -1.5730954556732482,
                1.0258282587417944,
                -0.7078672199304124,
                0.19886653578070732,
                -0.4170277441917113,
                -0.1855938966769935,
                -0.12931924119620636,
                0.7843571661165534,
                -1.4179829507882336,
                -0.44946704773315344,
                -0.6465596136924271,
                1.0414199183134958,
                -0.6548231576507,
                0.2595432021660452,
                1.9492697056967638,
                -0.2490697193813248,
                -0.33289715287033667,
                0.11830837120634748,
                -1.131982593923439,
                -0.0013934104590071846,
                1.1204498033005044,
                -0.664154904062359,
                1.6443850707795047,
                0.6063600530756437,
                0.4838482671789546,
                0.08991400983740781,
                -1.0152797979012567,
                -0.8595213516120136,
                1.448650014457628,
                -2.9879349105289776,
                0.5512130472209804,
                0.3964671216425981,
                2.002602835837014,
                0.46980317914733455,
                2.240011482741047,
                0.25826469966615084,
                -1.0400708249607022,
                1.781645376862792,
                0.6476403058365603,
                -0.006102164893923031,
                -0.7374093285247831,
                1.2008445068403122,
                0.7985721410209123,
                0.6801206694944785,
                -1.3867074578434058,
                -0.6597939401074188,
                -0.18594398693878678,
                -1.6041701788878848,
                -1.927363665966333,
                -0.8296561197441801,
                -1.1006473471345084,
                -0.870306757582455,
                1.4114130066064918,
                -0.4695313052297142,
                0.9417571919424435,
                0.6163836275801445,
                -0.9513462334614953,
                -0.9232193102204653,
                0.5440026171890957,
                1.1659644791510342,
                -0.1863933551783016,
                -0.5944329270241682,
                1.161798164525187,
                0.6280329417566037,
                0.44919306455715285,
                0.3008838211739339,
                -0.44200477182949766,
                -1.091042320415483,
                -1.2433310818314904,
                0.4372587431101375,
                -0.5016058704879488,
                0.6072014721513265,
                0.7091745104852748,
                1.0180272414311835,
                -0.7856121039206998,
                0.17968692151768625,
                0.4415502182457387,
                -0.8232181311666359,
                1.2250690352287583,
                -0.4964248377585924,
                2.6690722232672126,
                0.36440203996476417,
                0.6775579760854243,
                -0.8901064482463678,
                0.4139522759755594,
                -0.4702606265554975,
                -0.518738143994495,
                0.07461623425273974,
                -1.3726725648943887,
                0.962357315295882,
                1.4382388395955144,
                1.0868660633475915,
                0.8746256495620843,
                -0.2641660918569843,
                0.9514224142572574,
                -2.228069558222096,
                -0.2654207416939548,
                -1.0791755950814301,
                -0.6225673135891308,
                -1.6162248062278193,
                0.0012324608606311457,
                -0.3208271701377048,
                -0.37014826278014296,
                1.425372065663469,
                1.8557671509689604,
                0.06250982751420836,
                -0.9141256050693204,
                -1.33786726206875,
                0.7674422691756818,
                -0.42630876191116673,
                0.07129013636265431,
                2.4590068021061158,
                0.3286036771285244,
                -0.20033033610142956,
                1.0955107272715578,
                -0.5659046906362786,
                -0.7440303754593127,
                0.23475133785368307,
                0.6164205339903491,
                0.17809421125996092,
                1.645379571328835,
                -0.3402730079828956,
                0.09412952054448953,
                -0.9000766940325152,
                0.6293778548412742,
                -0.040809479521911156,
                1.1056598274855343,
                0.6801283651172685,
                -1.8514631086776643,
                1.429143482357234,
                0.4080157755343956,
                -0.7741102807771465,
                -0.6702028640456548,
                1.1811052954826853,
                -0.4225314801894946,
                0.07723619967267849,
                0.9930736709049064,
                -1.9976081608157081,
                -1.627308297256576,
                -1.9798274073499458,
                -0.24858826453751107,
                -0.8289631157843018,
                0.6763213466895748,
                -0.47144347229890576,
                -0.2842709331957463,
                -0.038672568064475776,
                -0.8942790790969686,
                -0.8888415034795132,
                -0.41834862221668445,
                -0.9770458129142018,
                1.398920702982053,
                0.32196262763282135,
                -0.9124648208278925,
                0.14905184834975632,
                -0.6737964332139476,
                0.24061800501769134,
                -0.18016798210269624,
                -1.5168128488852364,
                1.837424502462187,
                -0.14114239341381232,
                -0.006881471906073119,
                -0.7698587321573386,
                0.7315237609715319,
                -0.9733747347767414,
                0.9915444229908646,
                0.8268880074545352,
                1.8813334846279863,
                -0.2538151730311968,
                0.31765120015960024,
                1.117487681010415,
                -0.26920575314778294,
                0.2369698065145057,
                -0.4506845341209752,
                -1.518951618551562,
                0.5009125765226564,
                0.5152289313674587,
                0.40199713123957614,
                0.9001056689832797,
                1.1586306515201308,
                -1.0194302415765113,
                2.7288580733671313,
                -1.4793545819253104,
                0.9957694406484338,
                1.1657625729205658,
                -1.1349955620261007,
                1.242108912007544,
                -0.4314376056131945,
                -1.1401688879554563,
                1.5592104939280136,
                0.973419208630346,
                0.4918014750272783,
                -1.6242026610357798,
                -0.07505094294167923,
                1.0516352610764814,
                -0.4248627047418186,
                2.2922139621197086,
                0.12622304873135817,
                0.11369496796580714,
                1.0088082220917878,
                -0.08256781821854269,
                0.046215900875799236,
                -2.096289010060948,
                1.8139163087194647,
                1.2357970336047501,
                1.6357729425284775,
                0.8918469393958172,
                -1.412640424267328,
                0.9698602256255104,
                -0.3893106742316287,
                0.39399471616506476,
                -1.2523032372896852,
                -0.12582897583972663,
                -1.0052533605295468,
                -0.09140961914045091,
                -0.49396538168043236,
                1.0227479554337227,
                -1.3689347503506177,
                0.5327163249798457,
                -1.592788306929596,
                0.26380219644078706,
                0.3912063629576197,
                -0.7116539360346955,
                1.883235018766281,
                0.8342190138334726,
                0.10333542410149614,
                -0.5189454547697396,
                -0.5036514064979783,
                0.33020660061522344,
                -0.1873340544139544,
                0.2567493082196681,
                -1.2024289812702733,
                -1.3856183710389165,
                1.0321318571743534,
                -0.426936542730917,
                -0.567302310234376,
                0.16097545535617017,
                -0.8471112921258809,
                -1.4663187961522826,
                -1.5359288369509152,
                -1.0313845777515809,
                0.365003084109728,
                -1.391945879729083,
                -0.33690952399096574,
                -0.7286210295025417,
                0.6591386393599592,
                -0.41058180256088034,
                -0.5571192011037711,
                1.374472422734219,
                -0.4560788145351078,
                -0.4453277530054038,
                0.5806908007884123,
                1.224325922315041,
                -0.25564875149565763,
                1.1758767130336247,
                -0.8105818482465581,
                -1.205538647444724,
                1.6517312052767443,
                -1.0979481800439312,
                -0.4689211534173432,
                -0.5588725282851048,
                -1.332133679581171,
                0.4718867405493509,
                -0.9127155819896721,
                -0.8458588921620537,
                -0.5999752227792889,
                0.8023081599176761,
                -1.1802964908756937,
                -0.3693591931196837,
                2.1758018942680977,
                0.6095002221396362,
                0.23826704429615347,
                -1.215310507098682,
                -0.5046475249452969,
                0.08319067994579663,
                -0.18296238610864604,
                -1.3623966217566328,
                -1.4779138665364813,
                0.9388947989236667,
                -1.1214323765181984,
                1.4824278978511056,
                0.6441998201888233,
                1.0070640658696286,
                -1.6631268344518066,
                -1.1685662316817398,
                0.7390417872058455,
                -1.1878369254062138,
                0.48820238567050583,
                -0.8497390056893173,
                0.28949770196142793,
                -1.034277425761693,
                -1.3992550680543954,
                0.4762082143306804,
                -1.1892373581930515,
                1.7438394622759938,
                -1.4087011267784224,
                0.8771537034709161,
                1.372105823999606,
                1.1766639547176958,
                1.6736398865419415,
                -0.9678036589416213,
                0.5137979444381107,
                -0.39244562347478046,
                0.1578547208873071,
                -0.04067797361855659,
                -0.566730593421943,
                -0.44409743424343273,
                1.6158180059111271,
                1.646694662609734,
                0.4162297832527764,
                2.094077914512042,
                -0.4404376669960587,
                -0.40683449379321035,
                -0.40663367696044694,
                0.32200420211519365,
                -1.3508645556604568,
                -1.431360818840587,
                -1.2318872405459849,
                -1.0773793524810198,
                -1.51508536240235,
                1.3496609142160163,
                -0.9341394343502734,
                -2.1933130187478502,
                0.22663819384345893,
                0.675136662964498,
                1.0401207834079729,
                1.9855807912240684,
                1.4688694383550855,
                1.8445045970293,
                -1.112197883154644,
                -0.8548970282313268,
                -0.6233479633615273,
                -0.5973279776183255,
                0.8466185795277247,
                -1.3575585454204016,
                -0.6837240324476792,
                -0.6536599291154038,
                -0.14506729584377998,
                -3.2159661245830358,
                0.6273331722731519,
                -0.4325846637148722,
                -1.031422200104677,
                0.45103130384990514,
                0.35799719954565323,
                1.2105091575139049,
